digraph Tree {
node [shape=box] ;
0 [label="writes <= 0.5\nentropy = 0.9935\nsamples = 1061\nvalue = [480, 581]"] ;
1 [label="god <= 0.5\nentropy = 0.737\nsamples = 573\nvalue = [119, 454]"] ;
0 -> 1 [labeldistance=2.5, labelangle=45, headlabel="True"] ;
2 [label="that <= 0.5\nentropy = 0.645\nsamples = 541\nvalue = [89, 452]"] ;
1 -> 2 ;
3 [label="bible <= 0.5\nentropy = 0.3601\nsamples = 336\nvalue = [23, 313]"] ;
2 -> 3 ;
4 [label="entropy = 0.3163\nsamples = 332\nvalue = [19, 313]"] ;
3 -> 4 ;
5 [label="entropy = 0.0\nsamples = 4\nvalue = [4, 0]"] ;
3 -> 5 ;
6 [label="wrote <= 0.5\nentropy = 0.9065\nsamples = 205\nvalue = [66, 139]"] ;
2 -> 6 ;
7 [label="entropy = 0.8113\nsamples = 176\nvalue = [44, 132]"] ;
6 -> 7 ;
8 [label="entropy = 0.7973\nsamples = 29\nvalue = [22, 7]"] ;
6 -> 8 ;
9 [label="use <= 0.5\nentropy = 0.3373\nsamples = 32\nvalue = [30, 2]"] ;
1 -> 9 ;
10 [label="entropy = 0.0\nsamples = 28\nvalue = [28, 0]"] ;
9 -> 10 ;
11 [label="worth <= 0.5\nentropy = 1.0\nsamples = 4\nvalue = [2, 2]"] ;
9 -> 11 ;
12 [label="entropy = 0.0\nsamples = 2\nvalue = [0, 2]"] ;
11 -> 12 ;
13 [label="entropy = 0.0\nsamples = 2\nvalue = [2, 0]"] ;
11 -> 13 ;
14 [label="graphics <= 0.5\nentropy = 0.8271\nsamples = 488\nvalue = [361, 127]"] ;
0 -> 14 [labeldistance=2.5, labelangle=-45, headlabel="False"] ;
15 [label="image <= 0.5\nentropy = 0.7513\nsamples = 460\nvalue = [361, 99]"] ;
14 -> 15 ;
16 [label="that <= 0.5\nentropy = 0.6911\nsamples = 443\nvalue = [361, 82]"] ;
15 -> 16 ;
17 [label="entropy = 0.9918\nsamples = 103\nvalue = [57, 46]"] ;
16 -> 17 ;
18 [label="entropy = 0.4874\nsamples = 340\nvalue = [304, 36]"] ;
16 -> 18 ;
19 [label="entropy = 0.0\nsamples = 17\nvalue = [0, 17]"] ;
15 -> 19 ;
20 [label="entropy = 0.0\nsamples = 28\nvalue = [0, 28]"] ;
14 -> 20 ;
}